<?xml version="1.0"?>
<opencv_storage>
<cascade>
  <stageType>BOOST</stageType>
  <featureType>HAAR</featureType>
  <height>20</height>
  <width>20</width>
  <stageParams>
    <boostType>GAB</boostType>
    <minHitRate>9.9900001287460327e-01</minHitRate>
    <maxFalseAlarm>7.5000002980232239e-02</maxFalseAlarm>
    <weightTrimRate>9.4999999999999996e-01</weightTrimRate>
    <maxDepth>1</maxDepth>
    <maxWeakCount>100</maxWeakCount></stageParams>
  <featureParams>
    <maxCatCount>0</maxCatCount>
    <featSize>1</featSize>
    <mode>ALL</mode></featureParams>
  <stageNum>3</stageNum>
  <stages>
    <!-- stage 0 -->
    <_>
      <maxWeakCount>8</maxWeakCount>
      <stageThreshold>-2.3939993977546692e-01</stageThreshold>
      <weakClassifiers>
        <_>
          <internalNodes>
            0 -1 2 -2.9579818248748779e-02</internalNodes>
          <leafValues>
            7.0448547601699829e-01 -8.2920110225677490e-01</leafValues></_>
        <_>
          <internalNodes>
            0 -1 1 2.2352386265993118e-02</internalNodes>
          <leafValues>
            -9.1341751813888550e-01 5.1434051990509033e-01</leafValues></_>
        <_>
          <internalNodes>
            0 -1 7 -1.0459071025252342e-02</internalNodes>
          <leafValues>
            5.4887402057647705e-01 -6.9872391223907471e-01</leafValues></_>
        <_>
          <internalNodes>
            0 -1 11 5.8292796893510967e-05</internalNodes>
          <leafValues>
            3.6328497529029846e-01 -9.5903968811035156e-01</leafValues></_>
        <_>
          <internalNodes>
            0 -1 9 1.8405266106128693e-02</internalNodes>
          <leafValues>
            -5.1578509807586670e-01 8.8437885046005249e-01</leafValues></_>
        <_>
          <internalNodes>
            0 -1 15 -3.5978700034320354e-03</internalNodes>
          <leafValues>
            9.5200926065444946e-01 -4.2917898297309875e-01</leafValues></_>
        <_>
          <internalNodes>
            0 -1 3 2.8439675588742830e-05</internalNodes>
          <leafValues>
            5.1339334249496460e-01 -9.7994440793991089e-01</leafValues></_>
        <_>
          <internalNodes>
            0 -1 19 -5.1539659500122070e-02</internalNodes>
          <leafValues>
            9.8266190290451050e-01 -5.1105618476867676e-01</leafValues></_></weakClassifiers></_>
    <!-- stage 1 -->
    <_>
      <maxWeakCount>7</maxWeakCount>
      <stageThreshold>-1.4195239543914795e-01</stageThreshold>
      <weakClassifiers>
        <_>
          <internalNodes>
            0 -1 4 5.4010273743188009e-05</internalNodes>
          <leafValues>
            7.0786517858505249e-01 -9.3002915382385254e-01</leafValues></_>
        <_>
          <internalNodes>
            0 -1 3 -2.4697326807654463e-05</internalNodes>
          <leafValues>
            -6.6503936052322388e-01 6.2023079395294189e-01</leafValues></_>
        <_>
          <internalNodes>
            0 -1 10 2.8596278280019760e-03</internalNodes>
          <leafValues>
            -4.9212679266929626e-01 8.1892305612564087e-01</leafValues></_>
        <_>
          <internalNodes>
            0 -1 8 -3.8036988116800785e-03</internalNodes>
          <leafValues>
            9.5722997188568115e-01 -4.2627251148223877e-01</leafValues></_>
        <_>
          <internalNodes>
            0 -1 4 -7.5382071372587234e-05</internalNodes>
          <leafValues>
            -9.0641146898269653e-01 5.0743728876113892e-01</leafValues></_>
        <_>
          <internalNodes>
            0 -1 15 3.8092401809990406e-03</internalNodes>
          <leafValues>
            -4.9238222837448120e-01 9.5712769031524658e-01</leafValues></_>
        <_>
          <internalNodes>
            0 -1 15 -4.0970453992486000e-03</internalNodes>
          <leafValues>
            9.0548300743103027e-01 -3.7831971049308777e-01</leafValues></_></weakClassifiers></_>
    <!-- stage 2 -->
    <_>
      <maxWeakCount>9</maxWeakCount>
      <stageThreshold>5.1712714135646820e-02</stageThreshold>
      <weakClassifiers>
        <_>
          <internalNodes>
            0 -1 5 -1.6237270832061768e-01</internalNodes>
          <leafValues>
            -9.9374997615814209e-01 6.9322031736373901e-01</leafValues></_>
        <_>
          <internalNodes>
            0 -1 18 -9.4496225938200951e-04</internalNodes>
          <leafValues>
            4.8286429047584534e-01 -7.7713531255722046e-01</leafValues></_>
        <_>
          <internalNodes>
            0 -1 0 9.3082673847675323e-03</internalNodes>
          <leafValues>
            -9.2121124267578125e-01 3.7274813652038574e-01</leafValues></_>
        <_>
          <internalNodes>
            0 -1 13 5.5688507854938507e-03</internalNodes>
          <leafValues>
            -4.4546478986740112e-01 9.6026194095611572e-01</leafValues></_>
        <_>
          <internalNodes>
            0 -1 17 3.4730429761111736e-03</internalNodes>
          <leafValues>
            -4.2111214995384216e-01 9.4413781166076660e-01</leafValues></_>
        <_>
          <internalNodes>
            0 -1 12 6.1784181743860245e-03</internalNodes>
          <leafValues>
            -3.1678745150566101e-01 9.5356416702270508e-01</leafValues></_>
        <_>
          <internalNodes>
            0 -1 14 6.1986397486180067e-04</internalNodes>
          <leafValues>
            4.1608938574790955e-01 -9.7265684604644775e-01</leafValues></_>
        <_>
          <internalNodes>
            0 -1 16 5.0342865288257599e-03</internalNodes>
          <leafValues>
            -3.8742738962173462e-01 9.3774199485778809e-01</leafValues></_>
        <_>
          <internalNodes>
            0 -1 6 -2.3344429209828377e-03</internalNodes>
          <leafValues>
            9.1834002733230591e-01 -3.1892141699790955e-01</leafValues></_></weakClassifiers></_></stages>
  <features>
    <_>
      <rects>
        <_>
          0 0 10 20 -1.</_>
        <_>
          5 0 5 20 2.</_></rects>
      <tilted>0</tilted></_>
    <_>
      <rects>
        <_>
          0 0 18 8 -1.</_>
        <_>
          0 4 18 4 2.</_></rects>
      <tilted>0</tilted></_>
    <_>
      <rects>
        <_>
          0 12 20 8 -1.</_>
        <_>
          0 16 20 4 2.</_></rects>
      <tilted>0</tilted></_>
    <_>
      <rects>
        <_>
          0 19 4 1 -1.</_>
        <_>
          1 19 2 1 2.</_></rects>
      <tilted>0</tilted></_>
    <_>
      <rects>
        <_>
          1 17 2 1 -1.</_>
        <_>
          1 17 1 1 2.</_></rects>
      <tilted>1</tilted></_>
    <_>
      <rects>
        <_>
          3 0 15 20 -1.</_>
        <_>
          3 10 15 10 2.</_></rects>
      <tilted>0</tilted></_>
    <_>
      <rects>
        <_>
          6 6 2 2 -1.</_>
        <_>
          6 6 1 1 2.</_>
        <_>
          7 7 1 1 2.</_></rects>
      <tilted>0</tilted></_>
    <_>
      <rects>
        <_>
          7 9 6 3 -1.</_>
        <_>
          9 10 2 1 9.</_></rects>
      <tilted>0</tilted></_>
    <_>
      <rects>
        <_>
          7 11 2 2 -1.</_>
        <_>
          7 11 1 1 2.</_>
        <_>
          8 12 1 1 2.</_></rects>
      <tilted>0</tilted></_>
    <_>
      <rects>
        <_>
          9 7 3 3 -1.</_>
        <_>
          10 8 1 1 9.</_></rects>
      <tilted>0</tilted></_>
    <_>
      <rects>
        <_>
          9 10 1 2 -1.</_>
        <_>
          9 11 1 1 2.</_></rects>
      <tilted>0</tilted></_>
    <_>
      <rects>
        <_>
          10 0 10 1 -1.</_>
        <_>
          15 0 5 1 2.</_></rects>
      <tilted>0</tilted></_>
    <_>
      <rects>
        <_>
          10 11 2 4 -1.</_>
        <_>
          10 11 1 2 2.</_>
        <_>
          11 13 1 2 2.</_></rects>
      <tilted>0</tilted></_>
    <_>
      <rects>
        <_>
          10 12 3 1 -1.</_>
        <_>
          11 12 1 1 3.</_></rects>
      <tilted>0</tilted></_>
    <_>
      <rects>
        <_>
          10 19 10 1 -1.</_>
        <_>
          15 19 5 1 2.</_></rects>
      <tilted>0</tilted></_>
    <_>
      <rects>
        <_>
          11 7 2 2 -1.</_>
        <_>
          11 7 1 1 2.</_>
        <_>
          12 8 1 1 2.</_></rects>
      <tilted>0</tilted></_>
    <_>
      <rects>
        <_>
          11 8 3 1 -1.</_>
        <_>
          12 8 1 1 3.</_></rects>
      <tilted>0</tilted></_>
    <_>
      <rects>
        <_>
          11 11 2 2 -1.</_>
        <_>
          11 11 1 1 2.</_>
        <_>
          12 12 1 1 2.</_></rects>
      <tilted>0</tilted></_>
    <_>
      <rects>
        <_>
          16 0 4 18 -1.</_>
        <_>
          18 0 2 18 2.</_></rects>
      <tilted>0</tilted></_>
    <_>
      <rects>
        <_>
          16 2 3 14 -1.</_>
        <_>
          17 3 1 14 3.</_></rects>
      <tilted>1</tilted></_></features></cascade>
</opencv_storage>
